AgeDays,L,M,S
0,0.3809,3.2322,0.14171
7,0.2671,3.3388,0.146
14,0.2304,3.5693,0.14339
21,0.2024,3.8352,0.1406
28,0.1789,4.0987,0.13805
35,0.1582,4.3476,0.13583
42,0.1395,4.5793,0.13392
49,0.1224,4.795,0.13228
56,0.1065,4.9959,0.13087
63,0.0918,5.1842,0.12966
70,0.0779,5.3618,0.12861
77,0.0648,5.5295,0.1277
84,0.0525,5.6883,0.12691
91,0.0407,5.8393,0.12622
122,-0.005,6.4237,0.12402
152,-0.043,6.8985,0.12274
183,-0.0756,7.297,0.12204
213,-0.1039,7.6422,0.12178
244,-0.1288,7.9487,0.12181
274,-0.1507,8.2254,0.12199
304,-0.17,8.48,0.12223
335,-0.1872,8.7192,0.12247
365,-0.2024,8.9481,0.12268
396,-0.2158,9.1699,0.12283
426,-0.2278,9.387,0.12294
457,-0.2384,9.6008,0.12299
487,-0.2478,9.8124,0.12303
517,-0.2562,10.0226,0.12306
548,-0.2637,10.2315,0.12309
578,-0.2703,10.4393,0.12315
609,-0.2762,10.6464,0.12323
639,-0.2815,10.8534,0.12335
670,-0.2862,11.0608,0.1235
700,-0.2903,11.2688,0.12369
730,-0.2941,11.4775,0.1239
761,-0.2975,11.6864,0.12414
791,-0.3005,11.8947,0.12441
822,-0.3032,12.1015,0.12472
852,-0.3057,12.3059,0.12506
883,-0.308,12.5073,0.12545
913,-0.3101,12.7055,0.12587
944,-0.312,12.9006,0.12633
974,-0.3138,13.093,0.12683
1004,-0.3155,13.2837,0.12737
1035,-0.3171,13.4731,0.12794
1065,-0.3186,13.6618,0.12855
1096,-0.3201,13.8503,0.12919
1126,-0.3216,14.0385,0.12988
1157,-0.323,14.2265,0.13059
1187,-0.3243,14.414,0.13135
1218,-0.3257,14.601,0.13213
1248,-0.327,14.7873,0.13293
1278,-0.3283,14.9727,0.13376
1309,-0.3296,15.1573,0.1346
1339,-0.3309,15.341,0.13545
1370,-0.3322,15.524,0.1363
1400,-0.3335,15.7064,0.13716
1431,-0.3348,15.8882,0.138
1461,-0.3361,16.0697,0.13884
1491,-0.3374,16.2511,0.13968
1522,-0.3387,16.4322,0.14051
1552,-0.34,16.6133,0.14132
1583,-0.3414,16.7942,0.14213
1613,-0.3427,16.9748,0.14293
1644,-0.344,17.1551,0.14371
1674,-0.3453,17.3347,0.14448
1704,-0.3466,17.5136,0.14525
1735,-0.3479,17.6916,0.146
1765,-0.3492,17.8686,0.14675
1796,-0.3505,18.0445,0.14748
1826,-0.3518,18.2193,0.14821
